joint_name,feature_0,feature_1,feature_2,feature_3,feature_4,feature_5,feature_6,feature_7,feature_8,feature_9,feature_10,feature_11,feature_12,feature_13,feature_14,feature_15,feature_16,feature_17,feature_18,feature_19,feature_20,feature_21,feature_22
back_bkz,-0.04641133741733661,0.0004890141679259052,-0.10889672390375937,0.0,0.0,1.0,1.0,0.0,-0.788,-0.3142857142857143,1.0,0.0,0.33333333333333326,0.6666666666666667,-0.14417934782608696,0.14417934782608696,1.0,1.0,0.875,1.0195599999999998,-0.3666032077561102,0.029417670890350855,0.9992844704038828
back_bky,-0.04641133741733661,0.0004890141679259052,0.05316125473624256,0.0,-1.0,0.0,1.0,0.0,-0.10999999999999999,-0.48571428571428577,1.0,0.0,0.33333333333333326,0.6666666666666667,-0.1171267391304348,0.04769304347826087,1.0,1.0,0.875,1.0195599999999998,-0.3666032077561102,0.029417670890350855,0.9992844704038828
back_bkx,-0.04641133741733661,0.0004890141679259052,0.1031791493782186,-1.0,0.0,0.0,1.0,0.0,-0.4,-0.3142857142857143,1.0,0.0,1.0,0.6666666666666667,-0.11382586956521741,0.11382586956521741,1.0,1.0,0.875,1.0195599999999998,-0.3666032077561102,0.029417670890350855,0.9992844704038828
l_arm_shz,0.39754417900359873,0.4387950708433994,0.5809500789983724,0.0,0.0,1.0,0.0,0.0,-0.8260000000000001,-0.3142857142857143,-1.0,0.0,-1.0,0.6666666666666667,-0.34147826086956523,0.17073869565217392,1.0,1.0,0.875,1.0195599999999998,-0.3666032077561102,0.029417670890350855,0.9992844704038828
l_arm_shx,0.39754417900359873,0.6525081303926106,0.33586239525269024,-0.9999999999999998,0.0,0.0,0.0,-0.06521739130434782,-0.802,-0.3142857142857143,-1.0,0.0,-1.0,0.6666666666666667,-0.34147826086956523,0.34147826086956523,1.0,1.0,0.875,1.0195599999999998,-0.3666032077561102,0.029417670890350855,0.9992844704038828
l_arm_ely,0.39754417900359873,0.7301757717616382,0.15242037253931207,0.0,-0.29551669751247833,0.9553375746254922,0.0,-0.682608695652174,-0.874,-0.3142857142857143,-1.0,0.0,-1.0,0.6666666666666667,-0.682954347826087,0.0,1.0,1.0,0.875,1.0195599999999998,-0.3666032077561102,0.029417670890350855,0.9992844704038828
l_arm_elx,0.39759044512622865,0.7814229830934527,0.035974790859869765,-0.9999987317275395,-0.0015215211744567432,-0.00047065553016380484,0.0,0.06521739130434782,-0.776,-0.3142857142857143,-1.0,0.0,-1.0,0.6666666666666667,0.0,0.5122152173913044,1.0,1.0,0.875,1.0195599999999998,-0.3666032077561102,0.029417670890350855,0.9992844704038828
l_arm_wry,0.39799137340898283,0.7993146446573371,-0.2636824198894465,-0.00047066111901997263,3.315144447624263e-06,0.999999889233554,0.0,0.0,-0.95,-0.4285714285714286,-1.0,0.0,-1.0,0.6666666666666667,-0.6545652173913045,0.6545652173913045,1.0,1.0,0.875,1.0195599999999998,-0.3666032077561102,0.029417670890350855,0.9992844704038828
l_arm_wrx,0.39799137340898283,0.7993146446573371,-0.2636824198894465,-0.9999987317275387,-0.001521521174456743,-0.0004706555301638046,-1.0,0.0,-0.95,-0.4285714285714286,-1.0,0.0,-1.0,0.6666666666666667,-0.38321739130434784,0.38321739130434784,1.0,1.0,0.875,1.0195599999999998,-0.3666032077561102,0.029417670890350855,0.9992844704038828
r_arm_shz,0.39754417900359873,-0.4378170425075476,0.5809500789983724,0.0,0.0,1.0,0.0,0.0,-0.8260000000000001,-0.3142857142857143,-1.0,0.0,-1.0,0.6666666666666667,-0.17073869565217392,0.34147826086956523,1.0,1.0,0.875,1.0195599999999998,-0.3666032077561102,0.029417670890350855,0.9992844704038828
r_arm_shx,0.39754417900359873,-0.651530102056759,0.33586239525269024,-1.0,0.0,0.0,0.0,0.06521739130434782,-0.802,-0.3142857142857143,-1.0,0.0,-1.0,0.6666666666666667,-0.34147826086956523,0.34147826086956523,1.0,1.0,0.875,1.0195599999999998,-0.3666032077561102,0.029417670890350855,0.9992844704038828
r_arm_ely,0.39754417900359873,-0.7291977434257864,0.15242037253931207,0.0,0.2955166975124788,0.9553375746254922,0.0,0.682608695652174,-0.874,-0.3142857142857143,-1.0,0.0,-1.0,0.6666666666666667,0.0,0.682954347826087,1.0,1.0,0.875,1.0195599999999998,-0.3666032077561102,0.029417670890350855,0.9992844704038828
r_arm_elx,0.39759044512622865,-0.780444954757601,0.035974790859869765,-0.9999987317275392,0.0015215211744567432,-0.00047065553016380484,0.0,-0.06521739130434782,-0.776,-0.3142857142857143,-1.0,0.0,-1.0,0.6666666666666667,-0.5122152173913044,0.0,1.0,1.0,0.875,1.0195599999999998,-0.3666032077561102,0.029417670890350855,0.9992844704038828
r_arm_wry,0.39799137340898283,-0.7983366163214853,-0.2636824198894465,-0.00047066111901997263,-3.3151444469581293e-06,0.999999889233554,0.0,0.0,-0.95,-0.4285714285714286,-1.0,0.0,-1.0,0.6666666666666667,-0.6545652173913045,0.6545652173913045,1.0,1.0,0.875,1.0195599999999998,-0.3666032077561102,0.029417670890350855,0.9992844704038828
r_arm_wrx,0.39799137340898283,-0.7983366163214853,-0.2636824198894465,-0.9999987317275387,0.001521521174456743,-0.0004706555301638046,-1.0,0.0,-0.95,-0.4285714285714286,-1.0,0.0,-1.0,0.6666666666666667,-0.38321739130434784,0.38321739130434784,1.0,1.0,0.875,1.0195599999999998,-0.3666032077561102,0.029417670890350855,0.9992844704038828
hip_flexion_l,-0.006941608005802458,0.17340230780319676,-0.10889672390375937,0.0,1.0,0.0,0.0,-0.08695652173913045,-0.44999999999999996,-0.3142857142857143,-1.0,0.0,-1.0,0.6666666666666667,-0.1710421739130435,0.1710421739130435,1.0,1.0,0.875,1.0195599999999998,-0.3666032077561102,0.029417670890350855,0.9992844704038828
hip_adduction_l,-0.006941608005802458,0.17340230780319676,-0.10889672390375937,-0.9210609940028851,0.0,-0.38941834230865047,0.0,0.0,0.06000000000000005,-0.3142857142857143,-1.0,0.0,-1.0,0.6666666666666667,-0.11382586956521741,0.11382586956521741,1.0,1.0,0.875,1.0195599999999998,-0.3666032077561102,0.029417670890350855,0.9992844704038828
hip_rotation_l,0.21962935405516748,0.21711634271099012,-0.15023062020558064,0.38941834230865047,0.0,-0.9210609940028851,0.0,0.0,0.6799999999999999,-0.3142857142857143,-1.0,0.0,-1.0,0.6666666666666667,-0.35050869565217396,0.35050869565217396,1.0,1.0,0.875,1.0195599999999998,-0.3666032077561102,0.029417670890350855,0.9992844704038828
knee_angle_l,0.5340907202723302,0.21711634271099012,-0.5143086033642146,0.0,1.0,0.0,0.0,0.1739130434782609,0.78,-0.3142857142857143,-1.0,0.0,-1.0,0.6666666666666667,-0.03782608695652174,0.512254347826087,1.0,1.0,0.875,1.0195599999999998,-0.3666032077561102,0.029417670890350855,0.9992844704038828
ankle_angle_y_l,0.015191532696484655,0.21711634271099012,-0.9031354513921965,0.0,1.0,0.0,-1.0,-0.08695652173913045,0.48,-0.3142857142857143,-1.0,0.0,-1.0,0.6666666666666667,-0.2173913043478261,0.2173913043478261,1.0,1.0,0.875,1.0195599999999998,-0.3666032077561102,0.029417670890350855,0.9992844704038828
ankle_angle_x_l,0.015191532696484655,0.21711634271099012,-0.9031354513921965,-1.0,0.0,-5.551115123125784e-17,-1.0,0.0,-0.28,-0.3142857142857143,-1.0,0.0,-1.0,0.6666666666666667,-0.1739130434782609,0.1739130434782609,1.0,1.0,0.875,1.0195599999999998,-0.3666032077561102,0.029417670890350855,0.9992844704038828
hip_flexion_r,-0.006941608005802458,-0.17242427946734507,-0.10889672390375937,0.0,-1.0,0.0,0.0,0.08695652173913045,-0.44999999999999996,-0.3142857142857143,-1.0,0.0,-1.0,0.6666666666666667,-0.1710421739130435,0.1710421739130435,1.0,1.0,0.875,1.0195599999999998,-0.3666032077561102,0.029417670890350855,0.9992844704038828
hip_adduction_r,-0.006941608005802458,-0.17242427946734507,-0.10889672390375937,-0.9210609940028851,0.0,-0.38941834230865047,0.0,0.0,0.06000000000000005,-0.3142857142857143,-1.0,0.0,-1.0,0.6666666666666667,-0.11382586956521741,0.11382586956521741,1.0,1.0,0.875,1.0195599999999998,-0.3666032077561102,0.029417670890350855,0.9992844704038828
hip_rotation_r,0.21962935405516748,-0.2161383143751383,-0.15023062020558064,0.38941834230865047,0.0,-0.9210609940028851,0.0,0.0,0.6799999999999999,-0.3142857142857143,-1.0,0.0,-1.0,0.6666666666666667,-0.35050869565217396,0.35050869565217396,1.0,1.0,0.875,1.0195599999999998,-0.3666032077561102,0.029417670890350855,0.9992844704038828
knee_angle_r,0.5340907202723302,-0.2161383143751383,-0.5143086033642146,0.0,-1.0,0.0,0.0,-0.1739130434782609,0.78,-0.3142857142857143,-1.0,0.0,-1.0,0.6666666666666667,-0.512254347826087,0.03782608695652174,1.0,1.0,0.875,1.0195599999999998,-0.3666032077561102,0.029417670890350855,0.9992844704038828
ankle_angle_y_r,0.015191532696484655,-0.2161383143751383,-0.9031354513921965,0.0,-1.0,0.0,-1.0,0.08695652173913045,-0.28,-0.3142857142857143,-1.0,0.0,-1.0,0.6666666666666667,-0.2173913043478261,0.2173913043478261,1.0,1.0,0.875,1.0195599999999998,-0.3666032077561102,0.029417670890350855,0.9992844704038828
ankle_angle_x_r,0.015191532696484655,-0.2161383143751383,-0.9031354513921965,-1.0,0.0,-5.551115123125784e-17,-1.0,0.0,-0.28,-0.3142857142857143,-1.0,0.0,-1.0,0.6666666666666667,-0.1739130434782609,0.1739130434782609,1.0,1.0,0.875,1.0195599999999998,-0.3666032077561102,0.029417670890350855,0.9992844704038828
